<?xml version="1.0"?>
<!-- DTD for the XMLBIF 0.3 format -->
<!DOCTYPE BIF [
	<!ELEMENT BIF ( NETWORK )*>
	      <!ATTLIST BIF VERSION CDATA #REQUIRED>
	<!ELEMENT NETWORK ( NAME, ( PROPERTY | VARIABLE | DEFINITION )* )>
	<!ELEMENT NAME (#PCDATA)>
	<!ELEMENT VARIABLE ( NAME, ( OUTCOME |  PROPERTY )* ) >
	      <!ATTLIST VARIABLE TYPE (nature|decision|utility) "nature">
	<!ELEMENT OUTCOME (#PCDATA)>
	<!ELEMENT DEFINITION ( FOR | GIVEN | TABLE | PROPERTY )* >
	<!ELEMENT FOR (#PCDATA)>
	<!ELEMENT GIVEN (#PCDATA)>
	<!ELEMENT TABLE (#PCDATA)>
	<!ELEMENT PROPERTY (#PCDATA)>
]>


<BIF VERSION="0.3">
<NETWORK>
<NAME>train_set-加拿大勞工薪資(含測試集).csv.arff-weka.filters.supervised.attribute.Discretize-Rfirst-last-precision6-weka.filters.unsupervised.attribute.ReplaceMissingValues</NAME>
<VARIABLE TYPE="nature">
	<NAME>合約期間</NAME>
	<OUTCOME>&apos;\&apos;All\&apos;&apos;</OUTCOME>
	<PROPERTY>position = (0,96)</PROPERTY>
</VARIABLE>
<VARIABLE TYPE="nature">
	<NAME>第1年調薪</NAME>
	<OUTCOME>&apos;\&apos;(-inf-2.9]\&apos;&apos;</OUTCOME>
	<OUTCOME>&apos;\&apos;(2.9-inf)\&apos;&apos;</OUTCOME>
	<PROPERTY>position = (84,96)</PROPERTY>
</VARIABLE>
<VARIABLE TYPE="nature">
	<NAME>第2年調薪</NAME>
	<OUTCOME>&apos;\&apos;(-inf-3.5]\&apos;&apos;</OUTCOME>
	<OUTCOME>&apos;\&apos;(3.5-inf)\&apos;&apos;</OUTCOME>
	<PROPERTY>position = (168,96)</PROPERTY>
</VARIABLE>
<VARIABLE TYPE="nature">
	<NAME>第3年調薪</NAME>
	<OUTCOME>&apos;\&apos;(-inf-3.25]\&apos;&apos;</OUTCOME>
	<OUTCOME>&apos;\&apos;(3.25-inf)\&apos;&apos;</OUTCOME>
	<PROPERTY>position = (252,96)</PROPERTY>
</VARIABLE>
<VARIABLE TYPE="nature">
	<NAME>生活津貼調整</NAME>
	<OUTCOME>沒有</OUTCOME>
	<OUTCOME>tc</OUTCOME>
	<OUTCOME>tcf</OUTCOME>
	<PROPERTY>position = (336,96)</PROPERTY>
</VARIABLE>
<VARIABLE TYPE="nature">
	<NAME>每週工時</NAME>
	<OUTCOME>&apos;\&apos;All\&apos;&apos;</OUTCOME>
	<PROPERTY>position = (420,96)</PROPERTY>
</VARIABLE>
<VARIABLE TYPE="nature">
	<NAME>退休金規劃</NAME>
	<OUTCOME>ret_allw</OUTCOME>
	<OUTCOME>沒有</OUTCOME>
	<OUTCOME>老闆控制</OUTCOME>
	<PROPERTY>position = (504,96)</PROPERTY>
</VARIABLE>
<VARIABLE TYPE="nature">
	<NAME>待命薪資</NAME>
	<OUTCOME>&apos;\&apos;(-inf-6]\&apos;&apos;</OUTCOME>
	<OUTCOME>&apos;\&apos;(6-inf)\&apos;&apos;</OUTCOME>
	<PROPERTY>position = (588,96)</PROPERTY>
</VARIABLE>
<VARIABLE TYPE="nature">
	<NAME>工作轉換補助</NAME>
	<OUTCOME>&apos;\&apos;All\&apos;&apos;</OUTCOME>
	<PROPERTY>position = (672,96)</PROPERTY>
</VARIABLE>
<VARIABLE TYPE="nature">
	<NAME>允許進修</NAME>
	<OUTCOME>否</OUTCOME>
	<OUTCOME>是</OUTCOME>
	<PROPERTY>position = (756,96)</PROPERTY>
</VARIABLE>
<VARIABLE TYPE="nature">
	<NAME>法定假日</NAME>
	<OUTCOME>&apos;\&apos;(-inf-10.5]\&apos;&apos;</OUTCOME>
	<OUTCOME>&apos;\&apos;(10.5-inf)\&apos;&apos;</OUTCOME>
	<PROPERTY>position = (840,96)</PROPERTY>
</VARIABLE>
<VARIABLE TYPE="nature">
	<NAME>帶薪年假</NAME>
	<OUTCOME>很少</OUTCOME>
	<OUTCOME>平均</OUTCOME>
	<OUTCOME>很多</OUTCOME>
	<PROPERTY>position = (924,96)</PROPERTY>
</VARIABLE>
<VARIABLE TYPE="nature">
	<NAME>殘廢補助</NAME>
	<OUTCOME>無</OUTCOME>
	<OUTCOME>有</OUTCOME>
	<PROPERTY>position = (1008,96)</PROPERTY>
</VARIABLE>
<VARIABLE TYPE="nature">
	<NAME>牙醫補助</NAME>
	<OUTCOME>半額</OUTCOME>
	<OUTCOME>無</OUTCOME>
	<OUTCOME>全額</OUTCOME>
	<PROPERTY>position = (1092,96)</PROPERTY>
</VARIABLE>
<VARIABLE TYPE="nature">
	<NAME>喪事補助</NAME>
	<OUTCOME>無</OUTCOME>
	<OUTCOME>有</OUTCOME>
	<PROPERTY>position = (1176,96)</PROPERTY>
</VARIABLE>
<VARIABLE TYPE="nature">
	<NAME>健保補助</NAME>
	<OUTCOME>半額</OUTCOME>
	<OUTCOME>無</OUTCOME>
	<OUTCOME>全額</OUTCOME>
	<PROPERTY>position = (1260,96)</PROPERTY>
</VARIABLE>
<VARIABLE TYPE="nature">
	<NAME>class</NAME>
	<OUTCOME>壞工作</OUTCOME>
	<OUTCOME>好工作</OUTCOME>
	<PROPERTY>position = (588,0)</PROPERTY>
</VARIABLE>
<DEFINITION>
<FOR>合約期間</FOR>
	<GIVEN>class</GIVEN>
<TABLE>
1.0 
1.0 
</TABLE>
</DEFINITION>
<DEFINITION>
<FOR>第1年調薪</FOR>
	<GIVEN>class</GIVEN>
<TABLE>
0.6764705882352942 0.3235294117647059 
0.109375 0.890625 
</TABLE>
</DEFINITION>
<DEFINITION>
<FOR>第2年調薪</FOR>
	<GIVEN>class</GIVEN>
<TABLE>
0.5 0.5 
0.078125 0.921875 
</TABLE>
</DEFINITION>
<DEFINITION>
<FOR>第3年調薪</FOR>
	<GIVEN>class</GIVEN>
<TABLE>
0.2647058823529412 0.7352941176470589 
0.046875 0.953125 
</TABLE>
</DEFINITION>
<DEFINITION>
<FOR>生活津貼調整</FOR>
	<GIVEN>class</GIVEN>
<TABLE>
0.6571428571428571 0.2571428571428571 0.08571428571428572 
0.7230769230769231 0.046153846153846156 0.23076923076923078 
</TABLE>
</DEFINITION>
<DEFINITION>
<FOR>每週工時</FOR>
	<GIVEN>class</GIVEN>
<TABLE>
1.0 
1.0 
</TABLE>
</DEFINITION>
<DEFINITION>
<FOR>退休金規劃</FOR>
	<GIVEN>class</GIVEN>
<TABLE>
0.14285714285714285 0.6 0.2571428571428571 
0.07692307692307693 0.8153846153846154 0.1076923076923077 
</TABLE>
</DEFINITION>
<DEFINITION>
<FOR>待命薪資</FOR>
	<GIVEN>class</GIVEN>
<TABLE>
0.9705882352941176 0.029411764705882353 
0.859375 0.140625 
</TABLE>
</DEFINITION>
<DEFINITION>
<FOR>工作轉換補助</FOR>
	<GIVEN>class</GIVEN>
<TABLE>
1.0 
1.0 
</TABLE>
</DEFINITION>
<DEFINITION>
<FOR>允許進修</FOR>
	<GIVEN>class</GIVEN>
<TABLE>
0.8529411764705882 0.14705882352941177 
0.796875 0.203125 
</TABLE>
</DEFINITION>
<DEFINITION>
<FOR>法定假日</FOR>
	<GIVEN>class</GIVEN>
<TABLE>
0.7352941176470589 0.2647058823529412 
0.140625 0.859375 
</TABLE>
</DEFINITION>
<DEFINITION>
<FOR>帶薪年假</FOR>
	<GIVEN>class</GIVEN>
<TABLE>
0.6 0.2571428571428571 0.14285714285714285 
0.38461538461538464 0.26153846153846155 0.35384615384615387 
</TABLE>
</DEFINITION>
<DEFINITION>
<FOR>殘廢補助</FOR>
	<GIVEN>class</GIVEN>
<TABLE>
0.4411764705882353 0.5588235294117647 
0.015625 0.984375 
</TABLE>
</DEFINITION>
<DEFINITION>
<FOR>牙醫補助</FOR>
	<GIVEN>class</GIVEN>
<TABLE>
0.6571428571428571 0.3142857142857143 0.02857142857142857 
0.6307692307692307 0.046153846153846156 0.3230769230769231 
</TABLE>
</DEFINITION>
<DEFINITION>
<FOR>喪事補助</FOR>
	<GIVEN>class</GIVEN>
<TABLE>
0.14705882352941177 0.8529411764705882 
0.015625 0.984375 
</TABLE>
</DEFINITION>
<DEFINITION>
<FOR>健保補助</FOR>
	<GIVEN>class</GIVEN>
<TABLE>
0.14285714285714285 0.42857142857142855 0.42857142857142855 
0.2 0.015384615384615385 0.7846153846153846 
</TABLE>
</DEFINITION>
<DEFINITION>
<FOR>class</FOR>
<TABLE>
0.34375 0.65625 
</TABLE>
</DEFINITION>
</NETWORK>
</BIF>
