<?xml version="1.0"?>
<!-- DTD for the XMLBIF 0.3 format -->
<!DOCTYPE BIF [
	<!ELEMENT BIF ( NETWORK )*>
	      <!ATTLIST BIF VERSION CDATA #REQUIRED>
	<!ELEMENT NETWORK ( NAME, ( PROPERTY | VARIABLE | DEFINITION )* )>
	<!ELEMENT NAME (#PCDATA)>
	<!ELEMENT VARIABLE ( NAME, ( OUTCOME |  PROPERTY )* ) >
	      <!ATTLIST VARIABLE TYPE (nature|decision|utility) "nature">
	<!ELEMENT OUTCOME (#PCDATA)>
	<!ELEMENT DEFINITION ( FOR | GIVEN | TABLE | PROPERTY )* >
	<!ELEMENT FOR (#PCDATA)>
	<!ELEMENT GIVEN (#PCDATA)>
	<!ELEMENT TABLE (#PCDATA)>
	<!ELEMENT PROPERTY (#PCDATA)>
]>


<BIF VERSION="0.3">
<NETWORK>
<NAME>加拿大勞工薪資-weka.filters.supervised.attribute.Discretize-Rfirst-last-precision6-weka.filters.unsupervised.attribute.ReplaceMissingValues</NAME>
<VARIABLE TYPE="nature">
	<NAME>合約期間</NAME>
	<OUTCOME>&apos;\&apos;All\&apos;&apos;</OUTCOME>
	<PROPERTY>position = (1176,96)</PROPERTY>
</VARIABLE>
<VARIABLE TYPE="nature">
	<NAME>第1年調薪</NAME>
	<OUTCOME>&apos;\&apos;(-inf-2.65]\&apos;&apos;</OUTCOME>
	<OUTCOME>&apos;\&apos;(2.65-inf)\&apos;&apos;</OUTCOME>
	<PROPERTY>position = (672,96)</PROPERTY>
</VARIABLE>
<VARIABLE TYPE="nature">
	<NAME>第2年調薪</NAME>
	<OUTCOME>&apos;\&apos;(-inf-3.25]\&apos;&apos;</OUTCOME>
	<OUTCOME>&apos;\&apos;(3.25-inf)\&apos;&apos;</OUTCOME>
	<PROPERTY>position = (504,192)</PROPERTY>
</VARIABLE>
<VARIABLE TYPE="nature">
	<NAME>第3年調薪</NAME>
	<OUTCOME>&apos;\&apos;(-inf-3.25]\&apos;&apos;</OUTCOME>
	<OUTCOME>&apos;\&apos;(3.25-inf)\&apos;&apos;</OUTCOME>
	<PROPERTY>position = (756,288)</PROPERTY>
</VARIABLE>
<VARIABLE TYPE="nature">
	<NAME>生活津貼調整</NAME>
	<OUTCOME>tc</OUTCOME>
	<OUTCOME>沒有</OUTCOME>
	<OUTCOME>tcf</OUTCOME>
	<PROPERTY>position = (84,96)</PROPERTY>
</VARIABLE>
<VARIABLE TYPE="nature">
	<NAME>每週工時</NAME>
	<OUTCOME>&apos;\&apos;All\&apos;&apos;</OUTCOME>
	<PROPERTY>position = (0,96)</PROPERTY>
</VARIABLE>
<VARIABLE TYPE="nature">
	<NAME>退休金規劃</NAME>
	<OUTCOME>ret_allw</OUTCOME>
	<OUTCOME>老闆控制</OUTCOME>
	<OUTCOME>沒有</OUTCOME>
	<PROPERTY>position = (756,96)</PROPERTY>
</VARIABLE>
<VARIABLE TYPE="nature">
	<NAME>待命薪資</NAME>
	<OUTCOME>&apos;\&apos;(-inf-6]\&apos;&apos;</OUTCOME>
	<OUTCOME>&apos;\&apos;(6-inf)\&apos;&apos;</OUTCOME>
	<PROPERTY>position = (756,192)</PROPERTY>
</VARIABLE>
<VARIABLE TYPE="nature">
	<NAME>工作轉換補助</NAME>
	<OUTCOME>&apos;\&apos;(-inf-3.5]\&apos;&apos;</OUTCOME>
	<OUTCOME>&apos;\&apos;(3.5-inf)\&apos;&apos;</OUTCOME>
	<PROPERTY>position = (588,384)</PROPERTY>
</VARIABLE>
<VARIABLE TYPE="nature">
	<NAME>允許進修</NAME>
	<OUTCOME>是</OUTCOME>
	<OUTCOME>否</OUTCOME>
	<PROPERTY>position = (420,480)</PROPERTY>
</VARIABLE>
<VARIABLE TYPE="nature">
	<NAME>法定假日</NAME>
	<OUTCOME>&apos;\&apos;(-inf-10.5]\&apos;&apos;</OUTCOME>
	<OUTCOME>&apos;\&apos;(10.5-inf)\&apos;&apos;</OUTCOME>
	<PROPERTY>position = (756,576)</PROPERTY>
</VARIABLE>
<VARIABLE TYPE="nature">
	<NAME>帶薪年假</NAME>
	<OUTCOME>平均</OUTCOME>
	<OUTCOME>很少</OUTCOME>
	<OUTCOME>很多</OUTCOME>
	<PROPERTY>position = (672,672)</PROPERTY>
</VARIABLE>
<VARIABLE TYPE="nature">
	<NAME>殘廢補助</NAME>
	<OUTCOME>有</OUTCOME>
	<OUTCOME>無</OUTCOME>
	<PROPERTY>position = (924,288)</PROPERTY>
</VARIABLE>
<VARIABLE TYPE="nature">
	<NAME>牙醫補助</NAME>
	<OUTCOME>全額</OUTCOME>
	<OUTCOME>半額</OUTCOME>
	<OUTCOME>無</OUTCOME>
	<PROPERTY>position = (252,576)</PROPERTY>
</VARIABLE>
<VARIABLE TYPE="nature">
	<NAME>喪事補助</NAME>
	<OUTCOME>有</OUTCOME>
	<OUTCOME>無</OUTCOME>
	<PROPERTY>position = (924,672)</PROPERTY>
</VARIABLE>
<VARIABLE TYPE="nature">
	<NAME>健保補助</NAME>
	<OUTCOME>全額</OUTCOME>
	<OUTCOME>半額</OUTCOME>
	<OUTCOME>無</OUTCOME>
	<PROPERTY>position = (420,288)</PROPERTY>
</VARIABLE>
<VARIABLE TYPE="nature">
	<NAME>class</NAME>
	<OUTCOME>好工作</OUTCOME>
	<OUTCOME>壞工作</OUTCOME>
	<PROPERTY>position = (588,0)</PROPERTY>
</VARIABLE>
<DEFINITION>
<FOR>合約期間</FOR>
	<GIVEN>class</GIVEN>
<TABLE>
1.0 
1.0 
</TABLE>
</DEFINITION>
<DEFINITION>
<FOR>第1年調薪</FOR>
	<GIVEN>class</GIVEN>
<TABLE>
0.06578947368421052 0.9342105263157895 
0.6428571428571429 0.35714285714285715 
</TABLE>
</DEFINITION>
<DEFINITION>
<FOR>第2年調薪</FOR>
	<GIVEN>class</GIVEN>
	<GIVEN>第1年調薪</GIVEN>
<TABLE>
0.8333333333333334 0.16666666666666666 
0.041666666666666664 0.9583333333333334 
0.75 0.25 
0.1875 0.8125 
</TABLE>
</DEFINITION>
<DEFINITION>
<FOR>第3年調薪</FOR>
	<GIVEN>class</GIVEN>
	<GIVEN>第2年調薪</GIVEN>
<TABLE>
0.125 0.875 
0.04285714285714286 0.9571428571428572 
0.375 0.625 
0.05 0.95 
</TABLE>
</DEFINITION>
<DEFINITION>
<FOR>生活津貼調整</FOR>
	<GIVEN>class</GIVEN>
<TABLE>
0.06493506493506493 0.7402597402597403 0.19480519480519481 
0.2558139534883721 0.6744186046511628 0.06976744186046512 
</TABLE>
</DEFINITION>
<DEFINITION>
<FOR>每週工時</FOR>
	<GIVEN>class</GIVEN>
<TABLE>
1.0 
1.0 
</TABLE>
</DEFINITION>
<DEFINITION>
<FOR>退休金規劃</FOR>
	<GIVEN>class</GIVEN>
<TABLE>
0.06493506493506493 0.922077922077922 0.012987012987012988 
0.11627906976744186 0.3488372093023256 0.5348837209302325 
</TABLE>
</DEFINITION>
<DEFINITION>
<FOR>待命薪資</FOR>
	<GIVEN>class</GIVEN>
	<GIVEN>退休金規劃</GIVEN>
<TABLE>
0.16666666666666666 0.8333333333333334 
0.013888888888888888 0.9861111111111112 
0.5 0.5 
0.8333333333333334 0.16666666666666666 
0.1875 0.8125 
0.125 0.875 
</TABLE>
</DEFINITION>
<DEFINITION>
<FOR>工作轉換補助</FOR>
	<GIVEN>class</GIVEN>
	<GIVEN>第2年調薪</GIVEN>
	<GIVEN>待命薪資</GIVEN>
	<GIVEN>第3年調薪</GIVEN>
<TABLE>
0.5 0.5 
0.5 0.5 
0.5 0.5 
0.125 0.875 
0.5 0.5 
0.5 0.5 
0.75 0.25 
0.1323529411764706 0.8676470588235294 
0.75 0.25 
0.5 0.5 
0.125 0.875 
0.0625 0.9375 
0.5 0.5 
0.875 0.125 
0.5 0.5 
0.6428571428571429 0.35714285714285715 
</TABLE>
</DEFINITION>
<DEFINITION>
<FOR>允許進修</FOR>
	<GIVEN>class</GIVEN>
	<GIVEN>第2年調薪</GIVEN>
	<GIVEN>工作轉換補助</GIVEN>
<TABLE>
0.5 0.5 
0.875 0.125 
0.08333333333333333 0.9166666666666666 
0.15 0.85 
0.25 0.75 
0.13636363636363635 0.8636363636363636 
0.0625 0.9375 
0.8333333333333334 0.16666666666666666 
</TABLE>
</DEFINITION>
<DEFINITION>
<FOR>法定假日</FOR>
	<GIVEN>class</GIVEN>
	<GIVEN>允許進修</GIVEN>
	<GIVEN>第1年調薪</GIVEN>
	<GIVEN>第3年調薪</GIVEN>
<TABLE>
0.5 0.5 
0.16666666666666666 0.8333333333333334 
0.5 0.5 
0.25 0.75 
0.5 0.5 
0.5 0.5 
0.25 0.75 
0.11666666666666667 0.8833333333333333 
0.5 0.5 
0.16666666666666666 0.8333333333333334 
0.5 0.5 
0.25 0.75 
0.875 0.125 
0.3888888888888889 0.6111111111111112 
0.75 0.25 
0.9166666666666666 0.08333333333333333 
</TABLE>
</DEFINITION>
<DEFINITION>
<FOR>帶薪年假</FOR>
	<GIVEN>class</GIVEN>
	<GIVEN>允許進修</GIVEN>
	<GIVEN>第2年調薪</GIVEN>
	<GIVEN>法定假日</GIVEN>
	<GIVEN>第3年調薪</GIVEN>
<TABLE>
0.3333333333333333 0.3333333333333333 0.3333333333333333 
0.3333333333333333 0.3333333333333333 0.3333333333333333 
0.3333333333333333 0.3333333333333333 0.3333333333333333 
0.3333333333333333 0.3333333333333333 0.3333333333333333 
0.3333333333333333 0.3333333333333333 0.3333333333333333 
0.2 0.6 0.2 
0.3333333333333333 0.3333333333333333 0.3333333333333333 
0.1111111111111111 0.7777777777777778 0.1111111111111111 
0.3333333333333333 0.3333333333333333 0.3333333333333333 
0.3333333333333333 0.3333333333333333 0.3333333333333333 
0.3333333333333333 0.3333333333333333 0.3333333333333333 
0.3333333333333333 0.3333333333333333 0.3333333333333333 
0.3333333333333333 0.3333333333333333 0.3333333333333333 
0.1111111111111111 0.1111111111111111 0.7777777777777778 
0.2 0.6 0.2 
0.34545454545454546 0.2727272727272727 0.38181818181818183 
0.3333333333333333 0.3333333333333333 0.3333333333333333 
0.3333333333333333 0.3333333333333333 0.3333333333333333 
0.3333333333333333 0.3333333333333333 0.3333333333333333 
0.2 0.2 0.6 
0.3333333333333333 0.3333333333333333 0.3333333333333333 
0.3333333333333333 0.3333333333333333 0.3333333333333333 
0.3333333333333333 0.3333333333333333 0.3333333333333333 
0.7142857142857143 0.14285714285714285 0.14285714285714285 
0.2727272727272727 0.6363636363636364 0.09090909090909091 
0.7142857142857143 0.14285714285714285 0.14285714285714285 
0.3333333333333333 0.3333333333333333 0.3333333333333333 
0.45454545454545453 0.45454545454545453 0.09090909090909091 
0.3333333333333333 0.3333333333333333 0.3333333333333333 
0.06666666666666667 0.8666666666666667 0.06666666666666667 
0.3333333333333333 0.3333333333333333 0.3333333333333333 
0.2 0.2 0.6 
</TABLE>
</DEFINITION>
<DEFINITION>
<FOR>殘廢補助</FOR>
	<GIVEN>class</GIVEN>
	<GIVEN>第2年調薪</GIVEN>
	<GIVEN>待命薪資</GIVEN>
<TABLE>
0.5 0.5 
0.875 0.125 
0.5 0.5 
0.9857142857142858 0.014285714285714285 
0.25 0.75 
0.9545454545454546 0.045454545454545456 
0.625 0.375 
0.07142857142857142 0.9285714285714286 
</TABLE>
</DEFINITION>
<DEFINITION>
<FOR>牙醫補助</FOR>
	<GIVEN>class</GIVEN>
	<GIVEN>允許進修</GIVEN>
<TABLE>
0.17647058823529413 0.6470588235294118 0.17647058823529413 
0.3968253968253968 0.5555555555555556 0.047619047619047616 
0.1111111111111111 0.1111111111111111 0.7777777777777778 
0.02702702702702703 0.7297297297297297 0.24324324324324326 
</TABLE>
</DEFINITION>
<DEFINITION>
<FOR>喪事補助</FOR>
	<GIVEN>class</GIVEN>
	<GIVEN>殘廢補助</GIVEN>
	<GIVEN>法定假日</GIVEN>
<TABLE>
0.9 0.1 
0.9852941176470589 0.014705882352941176 
0.5 0.5 
0.5 0.5 
0.9375 0.0625 
0.9166666666666666 0.08333333333333333 
0.9166666666666666 0.08333333333333333 
0.125 0.875 
</TABLE>
</DEFINITION>
<DEFINITION>
<FOR>健保補助</FOR>
	<GIVEN>class</GIVEN>
	<GIVEN>第2年調薪</GIVEN>
<TABLE>
0.7777777777777778 0.1111111111111111 0.1111111111111111 
0.7746478873239436 0.2112676056338028 0.014084507042253521 
0.84 0.04 0.12 
0.047619047619047616 0.23809523809523808 0.7142857142857143 
</TABLE>
</DEFINITION>
<DEFINITION>
<FOR>class</FOR>
<TABLE>
0.646551724137931 0.35344827586206895 
</TABLE>
</DEFINITION>
</NETWORK>
</BIF>
